[[-0.24177959561347961, 0.06927792727947235, 0.11175649613142014, 0.3079719841480255], [-0.03852134943008423, -0.06593348830938339, -0.009778625331819057, 0.09378127753734589], [0.269576758146286, -0.22686856985092163, -0.39548638463020325, 0.106830894947052], [-0.38630056381225586, 0.006592002231627703, 0.028011612594127655, 0.06750990450382233], [0.24268701672554016, 0.23728615045547485, -0.13848790526390076, -0.4556276798248291], [0.3860909640789032, -0.18310955166816711, 0.20524495840072632, -0.3700006902217865], [0.08145025372505188, 0.3797011375427246, -0.15012508630752563, -0.2934779226779938], [0.03574192523956299, -0.07772782444953918, -0.1166888102889061, -0.36430624127388], [-0.24887633323669434, -0.17037200927734375, 0.3587671220302582, 0.09976912289857864], [-0.09100648760795593, 0.1946820467710495, 0.04619884863495827, -0.07604662328958511], [0.019167423248291016, -0.39983516931533813, 0.03365692123770714, 0.014940335415303707], [-0.20065400004386902, 0.13237091898918152, -0.4076313078403473, -0.12523195147514343], [-0.1433219015598297, -0.3605409860610962, -0.09856294095516205, -0.3999355435371399], [-0.10974875092506409, -0.19338765740394592, 0.25949352979660034, -0.3183854818344116], [-0.3063579797744751, 0.07301678508520126, -0.06203374266624451, -0.052451398223638535], [-0.18438498675823212, -0.09412243217229843, -0.2017172873020172, 0.0023409430868923664], [0.07753723859786987, 0.20040906965732574, 0.16902108490467072, -0.13186447322368622], [-0.30198127031326294, 0.13918337225914001, -0.08892524987459183, -0.3403443694114685], [-0.3541101813316345, -0.2703568935394287, -0.08211113512516022, -0.3521437346935272], [0.09993860125541687, 0.07768644392490387, -0.01181414257735014, 0.19245800375938416], [-0.06943833827972412, -0.23816536366939545, 0.12012183666229248, -0.10117234289646149], [0.37234434485435486, 0.06343306601047516, 0.2938677668571472, 0.05559726059436798], [-0.20586641132831573, -0.2602824568748474, -0.11145187169313431, 0.008285080082714558], [-0.06782174110412598, -0.1021648421883583, -0.48767679929733276, 0.2211662381887436], [-0.22477103769779205, 0.07542815804481506, 0.0963774025440216, -0.02046951651573181], [0.22819843888282776, -0.18177489936351776, 0.275521457195282, 0.2722650170326233], [-0.28168827295303345, 0.3540292978286743, -0.25829923152923584, -0.44528815150260925], [-0.39058321714401245, 0.3140590190887451, 0.27670854330062866, -0.4671449065208435], [-0.25413060188293457, -0.33906251192092896, 0.22978974878787994, -0.2602624297142029], [0.0860738456249237, -0.2045975774526596, -0.2029903382062912, 0.25231441855430603]]
[0.0, -0.019122716039419174, -0.0490482933819294, -0.04384676739573479]
[[0.5710405707359314, 0.5130124688148499, -0.19001001119613647, 0.3747090697288513], [0.2409907430410385, 0.5919287204742432, -0.7830082178115845, 0.13505224883556366], [0.1136355847120285, -0.566080629825592, -0.5078088045120239, 0.4031674861907959], [-0.4354342222213745, 0.5499134659767151, -0.5587178468704224, 0.3348211646080017]]
[-0.03012237697839737, -0.02017817087471485, 0.0, -0.05179901048541069]
[[0.12353421747684479], [0.45425212383270264], [0.549174427986145], [0.5572890639305115]]
[-4.031779766082764]
